nep3 3 Na Sb Se 
cutoff 7.5 5
n_max 8 6
basis_size 8 8
l_max 4 2 0
ANN 50 0
  2.7750537e-02
 -2.1228798e-02
  2.4520475e-02
  2.3194920e-02
 -1.6158667e-01
 -3.7770107e-02
 -4.2161051e-02
  1.5065232e-02
 -7.3058438e-01
 -1.4062752e-01
 -6.8267040e-02
 -1.9538488e-02
  5.3431809e-02
 -2.3922700e-02
  2.2495415e-02
  6.5118641e-02
  5.1281914e-02
 -1.3320404e-02
 -9.1985660e-03
  1.9179366e-03
 -1.0667525e-02
 -3.9837275e-02
 -2.5635457e-02
  8.6126670e-02
 -1.8706758e-01
  4.6427622e-02
  3.0825220e-02
  6.0805872e-02
  6.1552402e-02
  2.6744413e-03
 -2.7960883e-02
 -5.7361096e-02
  2.6869703e-02
  3.6877561e-03
 -1.9748361e-01
  4.5661826e-02
  1.0347949e-01
 -3.7160795e-02
 -4.8983447e-02
 -4.6861593e-02
 -6.9521859e-02
  1.3372847e-01
  2.0667652e-02
 -4.6599004e-03
  7.2592020e-02
  2.3745753e-01
  2.7012438e-01
 -1.7774044e+00
 -3.1599727e-02
 -6.9606125e-01
 -4.1528627e-01
  5.3130615e-01
  3.6386615e-01
 -1.2791710e-01
  2.5857559e-01
 -3.6166304e-01
  4.1489801e-01
 -7.0484430e-02
  2.3127520e-01
  3.2443526e-01
 -6.2144774e-01
  7.2409683e-01
  8.8193417e-02
 -6.8746513e-01
 -8.6309403e-01
  1.5645113e-02
 -2.8700179e-01
 -4.6336666e-02
 -9.0083808e-02
  9.4744295e-02
  1.6011564e-01
 -9.0733580e-03
 -1.1040188e-01
 -8.0429070e-02
 -4.9868521e-01
  2.6487987e-02
  1.5309918e-01
  1.3032500e-01
  1.3799109e-01
 -5.8054306e-02
 -3.0214411e-01
  7.8304857e-03
 -7.7158295e-02
  1.0052589e-01
  9.1610825e-01
 -1.9707428e-01
  2.0673850e-01
 -9.7897440e-02
 -5.8943975e-01
 -1.2776031e-01
 -5.7403249e-01
  4.9595952e-01
 -3.2614940e-01
  5.7577032e-01
 -8.5394993e-02
  9.3157165e-02
 -1.3960829e+00
 -2.9431626e-02
  8.9104116e-02
  9.0385571e-02
 -3.5544387e-01
  7.7185977e-01
  8.2359105e-01
 -7.0923075e-02
 -6.2137133e-01
 -5.0269777e-01
  7.0639563e-01
  1.0373763e+00
  1.7492302e-01
  6.0267228e-01
  4.7347474e-01
  1.6875482e+00
 -7.1876898e-02
  1.4159451e-01
 -4.2956290e-01
 -1.2736502e+00
  9.1040975e-01
  4.7012615e-01
 -1.4518803e-01
  3.9560476e-01
 -8.0115193e-01
  5.9120385e-03
 -4.5722019e-02
  5.2762918e-02
  5.0704449e-01
  8.2209665e-01
  4.7625753e-01
  2.2063130e-01
 -3.6825031e-01
  2.7151847e-01
 -3.7716782e-01
 -3.6679578e-01
 -4.8337117e-02
  1.3422868e-01
 -2.8982487e-02
 -5.9862353e-02
  2.0925807e-02
  2.0729562e-02
  5.0661437e-02
 -3.9398573e-02
 -3.4683462e-02
 -3.3743300e-02
 -7.5091250e-02
 -3.6665760e-03
 -3.2757211e-01
 -7.4899323e-02
  1.2179476e-02
 -1.3680103e-01
 -9.4905794e-02
  1.6272411e-02
 -6.2523380e-02
  3.8406324e-02
 -1.0556308e-01
  3.1009814e-02
  8.5502207e-02
 -6.5910868e-02
 -1.3320439e-02
  4.6612788e-02
  8.6418614e-02
  8.6686879e-02
 -6.9497474e-02
 -2.4162412e-02
 -6.9626890e-02
 -1.4053628e-01
  9.3928073e-03
  2.4549326e-02
 -4.1324720e-03
 -4.7382355e-02
 -1.8148724e-02
 -7.8396000e-02
  6.6647299e-02
 -2.2288159e-02
  5.0696284e-01
 -3.2651044e-02
 -1.2774983e-01
 -7.5798603e-03
 -1.3776819e-01
 -4.6353215e-01
  7.2801405e-01
 -7.4163067e-01
  1.4389180e-01
 -2.5188878e-02
  4.1236472e-01
 -7.1015644e-01
 -3.1437181e-02
 -1.3936472e-01
  1.7178018e-01
 -9.1320083e-02
 -6.3183564e-01
 -1.6901496e-01
 -1.7853132e-01
 -3.7622962e-02
 -1.0349280e-01
  1.3725558e-02
 -2.6759967e-01
  3.7404589e-02
  2.4922355e-01
 -2.8873131e-01
 -5.4039678e-04
  8.1205126e-03
  3.7170116e-02
  1.8813646e-01
 -4.4905823e-01
  3.4524298e-01
 -4.9153935e-02
  2.4203189e-02
  5.6450579e-02
 -9.1269426e-02
 -4.6153762e-04
 -2.5565254e-02
 -5.9973355e-02
  3.6998592e-02
 -1.3315055e-01
  2.6485818e-03
  7.4874304e-02
  5.7210885e-02
  1.9966584e-02
  4.1271381e-02
 -3.4597468e-02
 -3.2458279e-02
 -5.5020392e-01
 -2.4307381e-02
  4.3034950e-01
  3.5802323e-01
 -5.2030809e-02
 -1.3359095e+00
 -1.0673530e-01
 -1.5920869e-01
 -1.0317352e+00
 -1.3859810e+00
  1.0503455e+00
  2.0198123e-01
  5.4142487e-01
 -8.9920384e-01
 -4.6477368e-01
 -4.4797444e-01
  6.6948438e-01
 -6.3104928e-01
  9.9782959e-02
 -2.2238038e-02
 -1.0199074e+00
 -4.5292210e-02
  2.4275078e-01
 -1.1266725e-01
  1.0389283e+00
  4.6523538e-01
  1.1005499e+00
 -6.1013824e-01
 -3.1054640e-01
 -8.7671900e-01
  1.2331637e-02
  4.6115521e-02
  7.6255620e-02
 -2.9879057e-01
 -6.2464518e-03
 -1.7608504e-01
 -1.3199742e+00
 -4.1592693e-01
  7.2645210e-02
 -1.3500050e-02
  2.8207791e-01
  9.1404356e-03
  4.3782923e-01
 -1.2739623e-01
 -8.9429718e-01
 -7.8101653e-01
 -1.1003450e+00
 -1.6427303e-02
 -1.2565284e+00
 -2.5292760e-01
 -5.6728882e-01
  7.2464985e-01
 -2.4550624e+00
 -9.4541259e-02
 -4.7393346e-01
 -1.9719023e-01
 -8.9021730e-01
 -2.3539566e-02
  1.9986621e-01
 -1.2344269e-01
 -3.0122146e-01
 -5.4315096e-01
  4.0433019e-01
 -1.6451509e+00
  1.9772123e+00
 -1.3053143e+00
 -1.0267687e-03
 -2.8707305e-01
 -4.9088305e-01
 -5.2286655e-01
 -2.0213578e+00
  6.4592189e-01
  1.6755885e-01
 -4.8753285e-01
 -4.7707608e-01
 -2.2893229e+00
 -1.0180078e-01
  1.8685448e-01
 -4.4518757e-01
 -7.1101761e-03
  9.8628327e-02
 -1.7798321e-01
  7.6049197e-01
  1.1714752e-02
 -7.0221001e-01
 -2.7559334e-03
 -9.3103491e-02
 -2.2369619e-01
  2.2709433e-02
 -8.4879808e-02
  9.1198528e-01
  9.8350383e-02
 -3.1409327e-02
 -9.0078870e-03
 -2.2360526e-01
 -5.6760632e-02
  7.7908027e-01
 -1.7415132e-01
 -5.3899411e-02
 -7.9507329e-02
  2.1539460e-01
  1.2747945e-02
  7.6221265e-03
 -2.0173620e-03
 -1.1295491e-01
 -2.0604670e-01
  8.5714944e-03
 -3.5300791e-01
 -1.0438789e-02
 -6.7607480e-01
 -9.4207563e-02
  1.0007098e-01
  1.6781102e-01
 -9.5003992e-02
 -9.2361324e-02
 -2.8779995e-02
 -1.0090984e-01
  5.0224517e-02
 -2.8778300e-02
 -1.6814579e-01
 -2.2154046e-02
  6.0226325e-02
  4.4354212e-02
  9.0653133e-03
  1.3235085e-01
  1.2479223e-01
 -1.4372136e-02
  2.6563980e-02
 -1.7714131e-01
 -1.8030426e-02
  5.6049153e-02
  4.5738995e-02
  2.5778031e-01
 -3.1182772e-01
 -1.7287754e-01
  6.9805300e-01
  7.2581279e-01
  2.0212887e-02
 -5.0621361e-01
 -5.8350092e-01
  7.8692156e-01
  7.0928529e-02
 -9.4489717e-01
  8.0425190e-03
  1.4502135e-01
 -9.2721671e-01
 -9.6383996e-02
  2.2598237e-01
 -1.8190844e-01
  7.4777079e-01
  8.7085925e-03
  2.1759039e-01
 -1.1822078e-01
 -1.5645649e-02
  3.9178260e-02
  2.2698816e-02
 -8.8781072e-03
  1.3844946e-01
  4.0075877e-03
  1.0299093e+00
  3.5915758e-02
  4.8868572e-03
 -1.7598099e-01
 -1.4188682e-02
 -1.2983662e-02
  2.8763318e-01
  2.2723474e-01
  1.0508442e-01
  8.1666395e-02
  7.2510526e-02
  3.4679797e-02
 -9.7729608e-02
  1.6402259e-01
  6.2231715e-03
 -2.0569097e-01
  4.3578677e-02
 -7.0903517e-02
 -2.4602060e-01
  1.1820560e+00
 -6.2375490e-02
  7.6657787e-02
  9.8781777e-04
 -9.2743479e-02
  4.4921851e-01
 -6.1907089e-01
 -1.1138165e-01
  4.3591854e-01
 -6.9869137e-01
  2.5990877e-01
  2.4249773e-01
 -3.3643454e-02
  4.9837637e-01
  2.9366887e-01
 -1.2492307e-02
  8.5584372e-01
  9.1827911e-01
  3.1445009e-01
 -8.6318012e-03
  7.0710403e-01
  4.8214979e-02
  9.3439722e-01
 -4.9356416e-01
  9.4050562e-01
 -5.0361598e-01
  2.7658743e-01
  4.9842875e-02
  8.2084708e-02
  3.1576502e-01
  8.6111829e-02
  1.1781714e+00
  1.2626693e-01
  5.0827637e-02
  1.0244280e-02
  8.3294641e-03
 -5.8566928e-01
  1.2230273e-01
  2.7064366e-02
  2.7889667e-02
  1.6416000e-02
 -2.7573326e-01
 -7.6020807e-03
 -6.0012061e-02
  1.6137866e-02
 -1.6493954e-02
 -7.5673433e-03
 -4.7876123e-01
 -2.7977133e-02
  1.7428655e-02
  7.2629983e-03
  2.6558364e-02
 -6.6546217e-02
 -2.6524980e-02
 -2.1454347e-02
  2.5419220e-02
 -3.2746315e-02
 -6.9692172e-02
  2.2828693e-02
 -1.1913666e-01
 -7.8780472e-02
 -3.7744962e-02
 -5.3102404e-02
 -3.9554931e-02
  2.8241707e-03
 -1.6646251e-01
 -1.7193167e-01
  8.5763060e-02
  2.8845944e-02
 -5.1332287e-02
 -1.1256166e-01
 -5.8101127e-03
 -4.8740551e-02
 -1.6741769e-02
  1.2745260e-01
  1.0022650e-01
 -1.5738721e-01
  3.9521076e-02
 -1.9174762e-01
 -6.7099825e-02
 -3.5358716e-02
  1.4993150e-02
  3.4466118e-02
 -3.7940059e-02
  2.3489185e-02
  7.9722498e-03
 -9.1574840e-02
 -8.9796796e-02
  3.4087944e-01
  1.1048794e+00
  3.4051493e-02
 -2.5241110e-01
 -1.0704638e+00
 -1.2163594e-01
  3.5134658e-01
 -5.8531857e-01
  8.9558817e-02
 -2.2941269e-02
  7.0430362e-01
 -1.0537112e+00
  3.1660430e-02
 -1.4614066e-01
 -3.5209683e-01
  1.7107558e-02
  2.1100558e-01
 -1.1136580e+00
  2.3245297e-01
  5.3535696e-02
  3.4218661e-02
  1.9417942e-01
  1.5178502e-02
  4.1616255e-01
  6.8465091e-02
 -7.2803539e-01
  1.1491943e-03
  2.6600611e-01
  1.5019485e-01
  9.7676422e-03
  3.0530629e-01
  4.1166734e-02
 -6.5445977e-01
  2.8739613e-01
 -1.4637072e-01
 -9.0012038e-03
 -2.1274562e-01
  1.1432408e-01
  3.9039546e-01
  9.5075585e-02
  3.3806729e-01
  3.7282430e-02
 -5.2094087e-04
 -1.5972845e-02
  3.9439836e-01
  6.4153485e-02
 -3.3826761e-02
 -1.8527232e-02
  1.5256828e-02
 -3.2745697e-02
  9.8957762e-02
  1.7451180e-02
  3.2797262e-01
 -1.5903484e-02
  2.4274984e-02
  8.3921507e-02
 -1.2971865e+00
  1.6504440e-01
  1.9903573e-01
  1.0237116e-01
 -1.5873807e-03
 -9.1785409e-02
  2.6642581e-02
 -1.1889201e-01
  3.9361786e-02
  3.1684361e-02
  1.0492980e-02
  6.5137163e-02
  2.9492844e-02
  8.1910796e-02
 -5.8629137e-02
 -2.7910026e-02
 -3.2612391e-02
  2.5847470e-03
  1.2126294e-01
 -8.7816045e-02
  4.6350355e-03
  2.9008443e-02
  4.2498559e-02
 -3.7699144e-02
  7.6171502e-02
  2.8697396e-02
  1.4808330e-01
  9.3032613e-02
  1.1662954e-02
 -5.1611301e-02
 -2.6669595e-01
  1.8899061e-01
  1.1280195e-01
  1.3463724e+00
  5.5080956e-01
  8.2225591e-01
 -8.1882514e-03
 -3.8440640e-03
  1.0884684e-01
 -3.8375038e-01
  3.3126213e-05
  1.2719423e-01
  4.4903412e-01
  6.0358554e-01
  2.1679617e-01
  1.1795577e-01
 -7.4690044e-02
  1.4383665e+00
  3.7850648e-02
  1.5757998e+00
 -2.2308464e-01
 -3.1809255e-01
  1.3731338e-01
  4.0568167e-01
 -7.6136161e-03
  2.6840314e-02
 -5.3096808e-02
 -6.6514200e-01
 -1.8578392e-01
  8.1172153e-02
 -3.0239357e-02
  5.0846529e-01
 -5.6886041e-01
  6.8751562e-01
 -3.8057426e-03
 -4.4153156e-03
  6.5325677e-02
  3.0231142e-02
 -8.6073303e-01
  2.8709356e-02
  2.7274179e-01
 -7.9954136e-04
 -1.6694991e-01
  2.3358455e-03
  5.9216589e-01
  1.1093590e-02
 -7.3849164e-02
 -2.7969325e-02
 -6.4861894e-02
  9.6204066e-01
 -1.3414760e+00
 -6.8587267e-01
 -8.2093489e-01
  1.7677364e-01
 -1.6179521e-02
  1.3115308e-01
  2.5915936e-01
 -9.5100068e-02
  8.0675197e-01
  5.8952683e-01
  2.9326119e-02
 -5.9000157e-02
  5.0445050e-01
  4.3842167e-02
 -1.6360874e-01
  3.8065326e-01
  9.2442948e-01
  1.9139569e-01
  2.5531951e-01
  2.0495282e-02
  4.4744223e-01
  7.1716118e-01
  6.0358074e-02
  6.6079175e-01
  6.3004375e-02
  5.1152074e-01
 -2.4345505e-01
  3.1605616e-02
  9.6484922e-02
  2.5136280e-01
  8.0069536e-03
  1.2160739e-01
 -9.1792107e-02
  7.8873388e-02
  1.6330795e-01
  1.0637045e-02
  1.5638597e-02
  1.1326641e-01
  8.9895970e-01
 -3.4772247e-01
  5.3446144e-01
 -2.0803560e-01
  1.3696523e-01
 -1.0985576e-01
 -5.5262339e-01
 -5.1619905e-01
 -2.9532481e-02
  3.8646467e-02
 -1.3766688e-01
  3.9206296e-02
 -1.0252824e+00
 -5.1998578e-02
  2.4952276e-02
  2.0726781e-01
 -4.5485672e-02
 -6.4645246e-02
  1.9704644e-02
 -2.0887861e-01
  2.0066337e-01
  8.4335059e-03
 -5.7576828e-02
  7.8764737e-02
 -9.4856419e-02
 -4.8193369e-02
  1.9273585e-02
  2.6089750e-02
 -5.6004934e-02
  1.9640140e-02
  3.1669483e-02
  1.1553831e-01
  1.3933808e-02
  2.1770795e-01
 -1.7635057e-02
 -2.7008217e-02
  2.1811822e-01
 -2.6562341e-02
  1.7264056e-01
  6.7306776e-03
  1.8165933e-03
 -1.4369865e-02
  7.4525848e-02
 -4.8392851e-02
 -4.0208077e-01
 -5.8237240e-02
 -1.2083861e+00
  7.9232419e-01
  3.2457903e-01
  3.4828627e-01
 -5.0319397e-01
 -3.8811213e-01
  9.6633202e-01
 -2.0744243e-01
 -4.9074087e-02
  1.0022654e-01
  1.8680510e-01
  2.6818264e+00
  1.0875577e-01
  1.2530488e-01
 -1.8917091e-01
  1.0784092e-01
 -1.0835125e-01
  3.3395919e-01
 -4.5744434e-01
  1.6526173e-01
 -1.2121086e-01
 -8.7900292e-03
  3.0104304e-02
 -2.6248178e-01
  9.4557278e-02
 -2.1979105e+00
 -9.1103613e-02
  1.9459614e-01
 -1.1533538e-01
  2.0327669e-01
 -7.1504518e-02
 -2.5658429e-02
 -5.3530914e-01
 -7.3759377e-02
 -8.9188045e-01
 -4.6405345e-02
  3.6605326e-03
  2.4979413e-02
 -4.0737584e-02
 -2.0818718e-02
 -7.0625633e-02
  1.7539603e-03
 -1.2730707e-01
 -5.9750196e-02
  1.5587106e-01
 -3.7131315e-01
  8.9135543e-02
  6.1880179e-02
 -8.9174807e-01
 -2.1711241e-02
 -1.5205459e-01
 -8.9442432e-02
 -1.3558673e-02
 -3.9096415e-02
 -1.2724333e-01
  6.9890381e-03
  1.4584500e-02
  2.7734023e-01
 -1.7467793e-02
  1.0923810e-01
  1.5837263e-01
 -8.0064377e-03
  5.5148102e-02
 -2.0883767e-02
 -4.5539271e-02
 -1.1343697e-02
  5.4363210e-02
  4.2393364e-02
 -5.8486879e-02
 -5.7643358e-02
  5.3512823e-02
 -3.3658940e-02
 -5.0172616e-02
  6.9762178e-02
  1.8446235e-02
 -4.4650946e-02
 -1.4272344e-02
  1.4403464e-01
 -3.8668476e-02
  5.3786412e-02
  2.2967753e-01
 -7.5232992e-03
 -1.6537229e-02
  5.8423989e-02
 -1.9838478e-01
 -3.7576362e-02
  1.2457798e-02
 -6.9124258e-01
 -2.2401576e+00
 -7.1660906e-02
  2.8134608e-01
 -1.1548530e+00
 -4.6979755e-01
 -1.2119623e-01
  3.0293310e-01
 -1.0915410e-01
  4.4560887e-02
 -1.4901394e-01
  1.8736023e-01
 -5.3332198e-01
 -2.1402700e-01
 -1.4818549e-01
 -1.3191551e-01
  1.8140376e-01
 -1.7070835e-02
  1.1667289e-02
 -1.9744379e-02
 -8.2450740e-02
 -1.4389433e-01
 -1.4982103e-01
 -4.7291704e-02
  2.8606057e-02
 -1.8165501e-02
  3.7676337e-01
  1.7725348e-02
 -5.8817083e-01
 -1.0800988e-02
 -4.2771667e-02
 -8.0316328e-02
  3.1051254e-01
  7.2861773e-01
 -1.6050238e-02
 -4.8704952e-02
  1.3895317e-03
 -1.9050730e-02
 -5.9237164e-03
  6.8820290e-02
 -2.8457457e-01
  5.7473235e-02
 -7.4107656e-03
  3.5798438e-02
 -1.2035657e-01
 -6.2299705e-01
  6.3227153e-01
 -8.6364686e-02
 -6.7578800e-02
 -5.1260378e-02
 -4.6043955e-02
  5.6380439e-01
 -1.9378698e-01
  1.4547619e-01
  2.9080240e-02
 -1.0574047e-02
 -1.4105880e-01
  4.8340652e-02
 -9.4537929e-02
  2.2810521e-03
 -4.6080071e-04
  1.4590308e-01
 -3.0637396e-02
 -4.3522667e-02
  1.2039891e-02
  1.0140498e-01
 -1.2552240e-02
  5.6698717e-02
 -6.9442131e-02
  3.4546193e-01
  2.1141325e-01
 -1.1657846e-02
  5.3646911e-02
 -8.8502720e-02
 -2.0821767e-02
  1.1356364e+00
 -3.3845499e-02
 -8.7970488e-02
  9.1274284e-02
  1.8596348e-01
 -2.6487294e-01
 -9.5974185e-02
 -6.7386270e-02
  2.1762880e-02
 -3.6910560e-02
  2.1601619e-02
  1.1548477e-01
  1.6621316e-02
 -8.0265746e-02
 -4.0225373e-03
  6.4627893e-02
  4.1364539e-02
 -1.4106870e-01
 -1.4336970e-01
 -7.8219637e-02
 -1.0539186e-01
  1.8636754e-01
  1.4530706e-01
  1.1327131e-02
  5.3736683e-02
 -6.8287946e-02
  1.4006595e-01
 -3.1481646e-02
 -4.5785312e-02
 -1.0869155e-01
 -9.9974386e-03
  7.4015051e-02
 -1.6546277e-03
 -1.9017057e-02
 -2.1294340e-01
  8.4460638e-02
 -2.3151894e-01
 -6.1752528e-02
 -9.3421705e-02
 -2.1453625e-02
 -2.1335205e-02
  9.6482091e-02
  8.4677346e-02
 -2.9035013e-02
 -8.2512453e-02
  1.6131248e-02
 -1.0217579e-02
  7.1134016e-02
 -3.8013294e-02
  3.8695112e-02
 -7.5730383e-02
  1.2389966e-02
 -1.1267368e-01
 -7.1980216e-02
 -7.0035234e-03
  8.9772411e-02
 -1.9767267e-01
 -1.3896875e+00
  2.2437629e-01
 -5.5300099e-01
 -1.4444385e-01
  5.2511297e-02
 -2.9550856e-01
 -3.2328507e-01
  9.6039128e-01
 -1.8974924e-01
 -1.7496845e-01
  6.5348186e-03
  2.2189385e-01
  9.0862226e-01
  6.7132795e-01
  3.4069282e-01
  1.8830062e-01
  1.3447186e-01
  4.3214317e-02
  1.0199517e-01
 -6.9501072e-01
  1.1864438e-01
 -6.1673569e-03
  1.2222305e-01
  1.2741400e-02
 -3.3089057e-02
  1.6514243e-01
  3.2301180e-02
  3.3262062e-01
  5.4055291e-01
  1.0987058e-01
  2.3412241e-01
  3.2554254e-01
  2.5676879e-01
 -2.7821085e-01
  1.9435939e-01
  1.5772168e-01
 -1.7852202e-02
  1.0913116e-01
  4.7516003e-03
  7.6673472e-01
 -5.8001839e-02
 -3.7449837e-02
 -8.6269990e-02
  4.1586589e-02
 -4.3869901e-02
  2.0452676e-02
 -1.7564107e-01
  1.0032861e-01
 -9.0053119e-03
  4.2599775e-02
  1.7839467e-02
  1.3917388e-01
 -2.0912506e-02
 -2.7142128e-02
  1.0749646e-01
  4.1564614e-02
 -1.7137012e-01
 -7.9718009e-02
 -8.4660821e-02
  1.5030125e-01
 -1.7200361e-01
 -9.6080534e-04
 -3.7817378e-03
 -1.2573227e-04
  4.6265312e-05
 -2.9893863e-01
 -2.1088739e-01
 -2.6376585e-02
  5.1044136e-02
 -2.9207889e-02
 -1.2595652e-02
 -2.0593803e-01
  8.4722921e-02
  1.5772453e-02
 -3.0678291e-02
 -8.6167157e-02
  2.9434816e-03
 -1.0513935e-02
 -3.9830402e-02
 -3.5966262e-02
 -8.3514884e-02
 -1.0102989e-01
  4.4736949e-01
  4.0473487e-02
 -3.8942672e-02
  3.2758817e-02
  7.4660487e-02
  9.8673366e-03
  1.6072348e-02
 -5.2627497e-03
 -1.0530037e-01
 -4.3950867e-02
  2.4915724e-01
  4.1624913e-01
 -1.6390882e-02
 -1.7332244e-01
  5.3500790e-02
 -8.1730627e-02
  8.0589177e-03
  9.0588176e-01
  7.9126190e-03
 -1.0122606e-02
 -1.9639751e-02
  2.9242471e-01
 -3.6045268e-02
 -2.7659204e-02
  2.6099381e-01
 -1.9689474e-02
 -5.7569039e-01
  1.4484413e-01
  9.6629160e-03
  8.2192458e-02
  1.1469337e-02
  4.5250123e-03
 -8.8346414e-03
  9.1002531e-02
  1.7109727e-02
  9.0371467e-02
 -1.7053373e-02
  1.3668416e-02
 -1.3249762e-01
  9.3240708e-02
  1.5600844e-02
 -4.1084580e-02
 -1.1356909e-01
  4.7041982e-02
  1.7501998e-01
  1.8194798e-01
  1.9734965e-01
  2.3271623e-03
 -3.0757161e-02
  3.7548156e-03
 -3.1048116e-01
  9.8492682e-01
  3.1504247e-02
  6.0282763e-02
 -3.3907048e-02
 -5.1474738e-01
 -1.8501136e-02
 -6.7905344e-02
 -6.5929160e-02
  1.9918658e-01
 -5.7216719e-02
  9.4636291e-02
  1.0298329e-02
  5.9821764e-03
 -1.3679142e-02
 -1.0043620e-01
  6.2198602e-02
  1.2283039e-01
  1.2719367e-01
  6.9398366e-02
  4.2867359e-02
  3.6380515e-03
  6.1441837e-03
  1.6997499e-02
  1.1752014e-02
  6.1760429e-02
  8.3111271e-02
 -7.4416220e-02
  2.1733059e-02
 -7.6833740e-02
  1.3733907e-01
  1.3316513e-02
 -1.9543784e-02
 -6.3154846e-03
 -1.6844904e-02
  6.8060577e-02
 -2.7874067e-02
  1.8873103e-03
  1.0325819e-01
  1.9036224e-02
 -1.2271018e-01
 -1.4094451e-01
 -6.2818713e-02
 -3.5575792e-02
 -1.3833192e-01
  2.0713992e-01
  1.8326845e-03
 -6.7765154e-02
 -2.0810035e-01
  3.1533455e-03
 -6.7742817e-02
 -2.2414491e-01
 -1.5960090e-02
 -2.7169574e-02
 -3.8571870e-03
 -4.4568756e-01
  4.5824950e-03
  7.6117285e-02
  9.5287785e-03
  3.9114586e-01
  7.7273518e-02
 -1.3712832e-01
  3.4506381e-02
 -2.4088366e-01
 -9.5712282e-03
 -1.0775141e-01
 -6.5135881e-02
 -2.3387622e-02
 -6.0035475e-03
  4.3021079e-02
  3.7376909e-03
  1.0149953e-01
 -1.1415392e-01
 -2.4217870e-02
 -5.6326848e-02
 -5.8433998e-02
 -6.9407513e-03
 -4.0357288e-02
 -1.0290874e-02
 -9.1997124e-03
  1.1470279e-01
 -1.1592926e-01
 -6.9425784e-02
  1.1743651e-01
 -1.0418463e-01
  7.6441802e-02
  2.3113444e-02
 -2.8388008e-01
  1.0478787e+00
 -5.6349799e-02
  2.8759778e-01
  6.1843324e-01
  1.0513908e-01
  5.2506244e-01
  5.7713228e-01
  7.6705801e-01
 -1.0103948e+00
  1.3080767e-01
  1.0920397e+00
  5.8921057e-01
 -9.2840827e-01
 -2.1228343e-01
  2.3169161e-01
  2.3944961e-01
  3.4176612e-01
  2.1824144e-02
 -9.7621024e-02
 -2.1198480e+00
 -7.4744147e-01
 -3.8977909e-01
 -1.5414556e+00
  7.6186818e-01
  5.4204816e-01
  9.5831716e-01
  6.4944261e-01
 -7.5545245e-01
 -1.7672527e+00
  7.5258172e-01
 -5.6145054e-01
  6.3877517e-01
  6.0079455e-01
  8.9085150e-01
 -3.5077501e-03
 -8.3557874e-01
 -1.5791282e-02
 -9.2587161e-01
 -5.9880316e-02
  2.7805114e-01
 -3.3439659e-02
  1.8245596e-01
  1.1263596e-01
  5.5936709e-02
  4.4476446e-02
  2.9332232e-01
 -2.3287389e-02
 -7.6976288e-03
 -6.5633073e-02
 -1.0734668e-01
  1.4313885e-02
  5.2613828e-02
 -5.9959792e-02
  3.7831672e-02
 -1.6223949e-01
 -2.7104460e-03
  8.2147960e-03
  7.9366714e-02
  3.5212517e-02
 -1.6607539e-01
 -1.1920334e-01
 -4.3686884e-03
  2.6215054e-02
 -3.2939933e-02
  1.6034216e-01
 -3.5954185e-02
 -3.8995635e-02
  3.8968432e-03
  7.7765025e-02
  1.6869418e-03
 -3.6949582e-02
  3.5196397e-02
 -4.1177772e-02
 -4.1385116e-03
  1.4548646e-02
  3.6810702e-03
  4.5523267e-02
  3.3475507e-02
 -3.6550105e-02
 -1.5873942e-03
 -8.5747972e-02
  8.1597850e-02
  1.9110609e-03
  1.2856945e-01
 -3.5834648e-02
 -5.1321954e-02
  5.2128535e-02
 -1.0596099e+00
  2.4063903e-01
 -2.2348733e-01
  2.6372528e+00
 -7.3857975e-01
 -7.9287452e-01
  4.4428885e-01
 -4.0994489e-01
 -1.8519605e+00
  5.6143034e-01
 -4.6993971e-01
 -1.4081356e-02
 -3.1865203e-01
  7.5213566e-02
 -1.3397485e+00
 -3.0349490e-01
  4.9307409e-01
 -7.3789954e-01
 -3.6039848e-02
  1.0021446e+00
  8.8435543e-01
 -9.8933822e-01
 -5.6698227e-01
  1.1127075e+00
 -2.5975846e-02
  1.7687361e-01
  1.5632170e-01
  7.1472013e-01
  9.6374661e-02
  2.5725690e-01
 -2.5447580e-01
  2.3496700e-02
  2.6744074e-01
  8.9543827e-02
  2.8660169e-01
 -6.3629098e-02
  5.6675023e-01
  2.4368475e-01
  2.9202753e-01
 -1.8904901e-01
  4.6446857e-01
 -3.0661166e-01
 -8.8006258e-05
  4.7004631e-01
 -2.9860346e-02
 -1.0493755e-01
 -8.7336999e-01
 -2.2259206e-03
 -3.0088487e-01
 -2.6887524e-01
  1.6356063e-01
 -6.8823832e-01
  3.2168415e-01
  7.2986871e-02
  1.6622898e-01
  1.4579382e-03
  1.2463227e-02
  1.2148762e-01
  7.8902853e-01
 -2.2320433e-02
 -2.0279112e-01
 -3.2666020e-02
 -5.2570608e-03
  9.8514296e-02
 -2.4840140e-01
  1.2429674e-02
  1.6886517e-03
 -1.4339514e-01
 -3.2702781e-02
  6.6196816e-03
 -2.3217584e-01
 -3.6609784e-01
 -1.8633786e-01
  3.1088893e-03
  6.8079293e-02
 -9.1003984e-02
  2.9990716e-02
 -5.2583009e-02
  1.0712659e-01
 -1.8611802e-01
 -1.8077797e-01
  1.8638405e-01
 -2.2858557e-01
  3.5553116e-02
 -6.2772430e-02
 -4.7628596e-02
  1.6621564e-02
 -6.5168738e-02
 -7.7091336e-02
  5.1200453e-02
  7.5606853e-01
 -8.5002325e-02
 -2.0602958e-01
  3.1566030e-01
 -1.4829268e-03
  2.3387122e-01
  5.3345001e-01
 -7.7202871e-02
 -8.6066253e-02
 -2.5246358e-02
 -2.9042186e-03
 -2.3309674e-02
 -2.5980910e-03
  1.3532837e-02
 -1.2529609e-01
  6.4852923e-02
 -4.6929162e-02
  5.2745305e-02
 -1.9497997e-01
  1.2986657e-02
 -1.4340180e-02
  4.7292421e-03
  1.1513047e-03
 -9.7072283e-03
 -2.1589069e-01
  1.4858892e-02
  2.8856285e-04
  6.4730138e-02
  4.5544226e-02
  6.0582437e-02
 -3.3540487e-02
 -2.0941643e-02
  1.2986372e-01
 -1.2384196e-01
  8.7611340e-02
  8.0581652e-03
 -1.6332770e-02
  4.0258549e-02
 -3.1019866e-01
  3.6880333e-02
 -1.3680573e-01
  1.7013335e-01
 -1.1874539e-01
  6.3885301e-02
  8.9082994e-02
  3.7893724e-02
 -1.8694986e-01
  6.8242736e-02
 -4.1992571e-03
 -9.7559802e-03
 -1.6981748e-01
  2.1090075e-02
  7.2757942e-03
  1.4332460e-01
 -9.1686316e-02
 -2.2045605e-02
 -7.6004535e-02
 -6.2595695e-02
  6.5420046e-02
  4.3891091e-03
  6.2446212e-03
  3.0511707e-02
  5.9394993e-02
  1.9775999e-01
  1.6133050e-02
  2.6843140e-01
  7.5989358e-02
  7.0869185e-02
  2.5115710e-02
 -4.5550168e-02
 -9.1114372e-02
 -1.2008822e-01
  1.2715779e-01
 -8.6573564e-02
  1.6993698e-02
  1.5586703e-02
 -4.5997333e-03
  2.7544770e-02
 -6.5163001e-02
  9.6891217e-02
  1.1677398e-01
  4.7559142e-02
  3.1029146e-02
  2.6077824e-03
 -2.0013918e-01
  6.4330632e-03
  5.5237669e-01
  3.8645308e-02
 -9.2836879e-03
 -1.0064383e-01
  4.5164712e-02
 -1.4749296e-01
  4.4559371e-02
 -7.6155715e-02
  1.5962157e-01
  7.5673610e-02
  6.0455047e-02
 -8.3703019e-02
 -1.9708796e-01
 -8.1851542e-02
  1.4748353e-01
  3.0328589e-04
  1.4269668e-01
 -6.3256912e-02
 -2.3956935e-01
 -6.3123584e-02
  1.0774287e-02
  9.2407376e-02
 -4.8981626e-02
 -1.1077946e-01
  1.2400476e-01
  1.1216442e-02
  5.2706037e-02
 -1.2602958e-01
 -2.3068298e-02
 -6.6971511e-02
 -1.5160481e-02
  2.2569928e-01
  8.9291446e-02
 -3.5539933e-02
 -2.6032126e-02
 -9.4521806e-02
  3.1644359e-02
  1.4145067e-02
  1.0410874e-01
 -3.8825855e-02
  1.3772796e-01
  3.2674176e-01
 -1.4985245e-02
 -2.9767778e-02
  2.2772625e-01
  1.0789201e+00
 -5.8742183e-01
 -3.1189075e-01
 -1.7865941e-01
 -2.8475076e-01
  9.3256748e-01
 -2.6654048e+00
 -1.5154256e+00
  6.1788674e-02
 -3.0206235e-02
 -1.7417651e-01
 -1.9344711e+00
  9.4871812e-02
 -2.5372310e-03
  5.6171894e-02
 -1.4024229e+00
 -5.3298622e-01
  5.4538250e-01
 -4.5122302e-01
  3.6244732e-01
  6.2962663e-01
 -1.1517359e+00
 -7.3238081e-01
 -1.1077671e+00
 -3.8763839e-01
 -1.2249367e+00
 -1.0399496e-02
  3.1400188e-03
 -2.0122653e-01
 -4.8409235e-01
 -4.0431133e-01
  9.9697039e-03
  6.4955391e-02
 -2.4168579e-01
  4.4811583e-01
 -1.7575948e-01
 -7.8781508e-05
  1.0078318e-01
  1.7754045e-01
 -2.9950833e-02
 -2.8748468e-02
 -2.0722875e-01
  5.5139792e-01
  3.6944467e-01
  2.1255180e-01
 -4.0776152e-02
 -4.1986424e-01
  4.0287495e-02
  1.5495999e-01
  8.3527260e-02
  5.7041758e-01
  1.5220068e-01
 -3.6450031e-01
 -2.3433237e-01
  1.0418564e-01
  2.0153558e-01
  1.6251076e-02
 -6.1810855e-02
 -2.1602280e-02
  5.0872600e-01
  2.0342120e-03
 -7.5202420e-02
 -2.1566601e-01
 -1.5654416e-01
 -3.5305351e-02
  6.1221819e-02
 -1.4657927e+00
  1.6391732e-02
  3.4267306e-02
 -5.6001205e-02
 -4.7578827e-02
 -1.9118741e-02
 -3.2262389e-02
  5.2369910e-01
  2.2820641e-01
 -1.5006237e-02
  1.1132825e-01
  1.0214666e-01
 -2.8926907e-02
 -1.7721368e-01
 -2.3621584e-01
  1.2607748e-02
 -3.2008994e-02
  3.0837633e-02
 -7.8927763e-02
  2.3040876e-02
 -5.7700062e-03
 -4.1233782e-02
 -1.1195927e-01
 -3.1421304e-01
 -9.6765950e-02
 -1.7051072e-01
 -4.3114007e-01
 -7.0931691e-01
 -4.0671855e-02
  1.7442593e-02
  7.9421997e-03
  3.3572493e-03
  8.1045136e-02
  4.3881703e-02
 -4.3273576e-02
  9.6935973e-02
 -2.4022794e-01
 -7.4904062e-02
 -2.9391496e-02
 -3.1309314e-02
 -3.3700258e-02
 -5.4379877e-02
  8.2832146e-03
  2.2773884e-02
  8.4617096e-01
  4.5158784e-03
 -1.3099283e+00
 -7.1504414e-02
 -5.8130618e-02
  1.9597715e-01
  6.9486208e-02
 -7.3414005e-02
  1.8755601e-01
 -4.4191834e-02
 -5.5032354e-02
  4.4499446e-02
 -9.7048141e-02
  1.4435999e-01
 -1.0419465e-02
 -1.5613265e-01
 -8.7740095e-03
  1.4465456e-02
 -1.3667457e-01
 -9.9992037e-02
  3.2511268e-02
 -9.0441979e-02
 -1.0457058e-02
 -6.2964149e-02
  2.9476048e-02
 -2.4353543e-02
  1.1113856e-01
 -5.5219568e-02
 -6.3709848e-02
  1.1298741e-01
  1.4147870e-01
  8.4792614e-02
 -1.2482447e-04
 -3.7431240e-02
 -1.1994133e-02
 -7.4416302e-02
 -7.6179452e-02
 -6.9615670e-02
 -2.0911025e-01
 -4.8633978e-02
 -5.3150910e-03
  3.1828564e-01
 -6.4321244e-01
 -1.9072691e-02
  6.6021375e-02
  1.7236570e-01
 -6.6863462e-02
 -1.4935812e-01
 -2.7451792e-01
 -3.1314191e-01
 -7.9535000e-02
 -1.3529561e-02
 -1.9363147e-01
  1.2145624e-02
 -1.1166135e-01
  5.7132330e-02
 -5.4699175e-02
  1.5705284e-02
 -9.0534434e-02
 -2.1025501e-02
 -2.3553939e-01
 -1.6607402e-02
 -5.2349072e-02
  2.1296079e-01
  5.7072956e-02
 -2.4675936e-02
 -5.1405972e-01
 -2.7039602e-01
 -8.4665525e-01
  1.1443806e+00
  1.9175940e+00
 -9.2807192e-01
 -1.1247011e-01
 -8.7468123e-01
  2.9846171e-01
 -2.1365087e+00
  7.0236766e-01
  8.2225673e-02
  1.4795172e-01
  9.6572056e-02
 -2.5642296e-02
 -3.6764267e-01
 -8.0381453e-01
 -2.2655801e-01
  9.8608446e-01
 -7.4756378e-01
  4.3520060e-01
 -3.5865149e-01
  2.2067841e-02
 -1.4491432e+00
 -4.9214765e-02
  8.9417255e-01
  3.9796990e-01
 -4.8586372e-03
 -1.2860674e-01
  6.3685107e-01
  2.0557639e-01
  2.5833073e-01
 -3.7984329e-01
 -8.2072996e-02
 -4.2516741e-01
  8.5242194e-01
  2.5948516e-01
  3.8630432e-01
 -9.5618665e-02
  2.6754111e-01
  5.2559769e-01
  5.9821272e-01
  4.7382215e-01
  9.4615027e-02
  3.3315312e-02
  6.2437642e-01
  4.7567002e-02
  1.1471677e-01
 -8.9819044e-02
  2.3943493e-02
  3.3965565e-02
 -1.7778778e-01
  6.7476574e-03
  1.4575090e-01
 -1.3609754e-02
  3.6283897e-04
 -9.9885710e-02
 -1.6915187e-01
  4.9954286e-01
 -2.3066588e-02
 -1.8030066e-02
 -6.1871216e-02
  6.6916496e-02
 -5.0291857e-03
  1.1933873e-01
 -4.9028020e-02
  4.7308197e-03
 -4.3898363e-02
  2.1251456e-01
 -6.1578512e-02
  9.7589239e-02
 -2.2196155e-02
 -4.3814483e-01
 -9.4636399e-03
 -6.6720650e-02
 -3.5332125e-03
 -3.7051998e-02
 -5.4402716e-02
 -2.0659992e-02
  1.6576013e-02
 -7.6761350e-02
 -2.8785510e-02
 -3.3594377e-02
 -4.1647237e-02
  2.5527645e-02
  2.5797307e-01
 -2.7924214e-02
 -6.7452781e-02
 -6.0634893e-01
  1.1808164e-01
 -3.4822112e-01
  1.2207486e-02
 -1.1339550e-01
  1.9692813e-01
  3.1788766e-01
  5.6299967e-01
 -1.3223767e-01
 -6.3734077e-02
 -1.4919455e-02
  1.7505020e-02
 -8.0160443e-03
 -2.2158422e-01
 -5.9533087e-03
  2.6710221e-01
 -8.5675102e-03
 -1.5898158e-01
 -4.8411779e-02
 -4.2946279e-02
 -6.0144104e-03
  2.5765000e-02
  3.0282032e-01
  4.7740290e-01
 -1.8546812e-02
 -8.4587699e-01
 -2.3595034e-04
 -1.5390766e-02
 -1.0821657e-01
  1.3298593e-02
 -2.2299221e-01
 -3.7211753e-02
 -1.2002891e-01
  5.6086358e-02
  2.2250189e-02
 -8.8097125e-02
 -9.7078629e-02
  6.6452883e-02
 -7.7398807e-02
 -2.1335937e-02
  2.5737267e-02
  2.9986294e-02
 -7.9244720e-03
 -2.4200235e-01
  1.8057233e-01
  4.4136018e-02
  2.9599428e-01
  4.0584376e-01
 -6.5708375e-01
  4.0148795e-01
  4.1754957e-02
 -1.2913806e-02
  3.9890885e-01
  1.0614034e+00
 -4.5045828e-03
 -5.5904907e-01
  5.1660135e-02
 -2.0167629e-01
  2.1840154e-01
 -1.4281235e+00
  8.6787432e-02
 -4.5117936e-01
 -4.2309305e-01
 -4.5537397e-02
 -2.0089957e-01
  2.3776129e-01
  4.4312853e-01
  1.4433803e-01
  1.7542696e-01
 -1.0562884e+00
  5.6709247e-03
 -2.3336720e-01
 -4.1857210e-01
 -2.3634288e-01
 -1.0178398e-01
 -4.5000440e-01
 -3.8603541e-01
  4.9844077e-01
 -1.2403668e-01
  3.2781143e-02
  1.5778165e-01
  1.2768030e-02
 -1.7812762e-02
  4.2187896e-01
 -5.6605581e-02
  1.4617490e-02
 -1.6758852e-01
  2.0973693e-01
  2.1820666e-01
 -5.1167235e-03
 -7.7180103e-03
 -3.7404377e-02
 -2.8127657e-02
  7.8194477e-02
  2.7721440e-03
 -1.1187966e-01
  1.9281769e-02
  5.0106876e-02
 -1.2594052e-03
  5.1720183e-02
  8.5767016e-02
 -7.0639871e-02
  3.0992210e-02
 -3.4035787e-02
  2.2157118e-02
  9.6936390e-02
 -3.0297814e-03
 -1.1282551e-02
 -1.0436417e-02
  2.1298084e-02
  1.5427707e-01
  1.9430425e-02
  9.6954651e-02
  2.1023291e-01
  1.6458211e-03
 -2.1969777e-02
 -6.0244665e-02
  1.7590895e-02
 -9.8192841e-02
  2.1472754e-01
  2.1439660e-01
  2.8501501e-02
  1.2576354e-01
  9.4132394e-02
 -3.0415377e-02
 -2.6804861e-03
  3.7324674e-02
 -1.6056776e-01
  7.4954681e-02
  1.2131501e-02
 -1.1207274e-02
 -5.4747842e-02
 -7.1333088e-02
  1.6236368e-01
  2.7153206e-01
 -6.6964790e-02
  2.5466356e-02
  4.2104825e-01
  3.3119166e-01
 -8.0571406e-02
  6.0943894e-02
  8.0162667e-02
  9.3084879e-02
  4.2732120e-02
 -8.0950350e-02
 -2.4866904e-01
 -4.8735933e-03
  1.8178053e-01
 -1.1011828e-01
 -8.9217275e-03
 -1.4931806e-02
  9.9352770e-02
 -6.4241700e-02
  7.6916665e-02
  4.1115768e-03
 -6.7441449e-02
  2.1621289e-03
 -4.5285565e-01
  5.2080932e-04
 -1.6240200e-01
 -1.0563476e-02
 -3.6241622e-03
  3.7854075e-02
  1.0760095e-02
  3.8132362e-02
 -3.5597742e-02
  3.5986967e-02
 -3.1363051e-02
  1.2257563e-02
 -8.8338152e-02
  3.9112318e-02
  5.5229127e-02
 -4.8317358e-02
 -1.1916275e-01
 -9.7795157e-03
 -1.0588744e+00
 -8.2817025e-02
 -1.2414364e+00
 -1.4139287e-01
  1.3460224e-02
 -5.5713739e-02
  1.6901051e-01
 -3.4682488e-01
  3.7146959e-01
 -3.2390493e-01
  1.5915605e-01
 -9.0952218e-03
  2.4154454e-01
  5.1609479e-02
  3.2396385e-01
 -5.4837239e-01
 -3.4589750e-01
  1.3735026e-01
  3.3786610e-02
 -2.6239920e-04
  1.3277934e-01
  1.5038561e-02
 -1.8831160e-02
  1.3044924e-02
 -1.3987895e-02
 -1.1876510e-02
 -2.5378142e-02
  9.6910524e-01
 -5.3967098e-03
 -1.4034226e-02
 -1.1319209e-02
  3.4754172e-02
  1.1551420e-02
 -1.8185218e-01
  3.3064127e-01
 -1.3456823e-01
 -2.2850148e-02
 -9.9375688e-02
 -7.7634104e-02
  1.8288584e-01
 -4.8481017e-02
  6.5652225e-03
  2.1491278e-02
  3.3503558e-02
  6.0122225e-02
 -6.5815532e-01
 -4.0151787e-01
  8.1512250e-02
 -6.9400758e-01
  4.8097068e-01
  6.5205991e-01
 -3.2464895e-01
 -8.9758426e-01
  1.7560393e-01
  1.0486463e-01
  2.9275417e-01
  2.5224686e-01
  2.2161619e-01
 -8.8304898e-04
  1.7065597e-01
 -6.9244020e-02
  4.2702225e-01
  2.2690560e-01
  2.0228027e-01
 -2.3382220e-02
  7.6081896e-01
  3.5820416e-01
  1.8494059e-01
 -1.2233543e-01
  1.5467457e-01
  1.3488288e+00
  1.2365266e-01
  1.4440280e-01
  4.2172793e-01
 -7.4498765e-02
  1.4758353e-01
 -4.6542794e-02
  1.5938295e-02
  8.7349452e-02
  3.8718235e-02
 -5.7068519e-02
  3.0198947e-02
 -4.0434953e-02
 -1.3478391e-01
 -1.8339492e-02
 -4.0978312e-02
 -7.6364838e-02
 -6.5307356e-02
 -2.2786850e-02
  3.3474587e-02
 -1.8716194e-02
 -2.0515714e-03
 -5.5494562e-02
 -7.7888677e-03
 -1.2823354e-01
  4.2444423e-02
 -7.9014882e-02
  5.6057596e-03
  5.6287222e-02
  9.0396725e-02
 -7.5267046e-03
  1.1034445e-02
  1.1315681e-02
 -5.7060547e-02
 -4.6342589e-02
  4.8497159e-02
  1.1492907e-01
 -3.5347588e-02
 -1.5149230e-02
 -5.8900816e-03
 -1.7098133e-01
  4.1456774e-02
 -2.8180214e-02
 -1.1489001e-01
 -5.3101670e-02
 -4.1502468e-02
  2.4514110e-01
 -8.5362084e-03
  1.4437021e-02
 -2.4108682e-03
  7.4430242e-02
  4.5449296e-01
 -7.6241843e-02
 -2.3444008e-02
  4.5771126e-02
  1.7619140e-02
  1.8039875e-02
  2.2990869e-01
  3.2551065e-02
  3.2203246e-02
  5.5009690e-03
 -1.4007439e-02
 -5.5274311e-02
 -3.8981321e-01
  2.2519326e-02
 -4.1814303e-01
  7.1115500e-01
 -5.4257847e-02
  1.1223533e+00
 -1.5648816e-02
  2.2929268e-02
 -2.3863906e-01
  1.7488839e-03
 -1.0991587e-01
 -7.2252296e-02
  6.7437731e-02
  7.5996941e-01
  2.6559052e-01
 -2.2016084e-01
  2.7322051e-01
  2.2570713e-01
 -1.0512118e-01
  5.3772524e-02
  6.5820611e-01
  1.4058660e-01
  1.1193861e-01
  1.2281738e-01
 -3.0359695e-02
  1.9297428e-01
 -3.9457947e-01
  9.3484813e-01
  1.1904354e-01
  1.1078223e-01
  3.2785681e-01
  1.0817397e-01
 -1.8579169e-01
  3.0357823e-01
  4.4918376e-01
  2.3659655e-01
 -2.7978182e-01
  9.5675373e-03
  1.2778820e-02
  3.0086794e-01
  4.1177654e-01
 -1.3363393e-01
 -1.1290196e-01
 -4.8734212e-01
  5.0379176e-02
 -1.3680081e-01
  1.9742310e-01
 -1.5366596e-01
  2.6173663e-01
  8.4538305e-01
 -9.5566884e-02
 -2.6674467e-01
 -2.7969033e-01
  5.0079595e-02
  5.0578900e-03
  1.5524264e-01
 -7.9355255e-02
 -1.3034614e-02
  4.0684360e-01
 -1.5930010e-02
 -4.5014326e-03
  7.2160773e-03
  3.4238100e-02
  3.7429041e-01
 -3.0667504e-02
 -1.7826448e-01
 -7.6382361e-02
  1.9635325e-02
  9.2961878e-02
 -1.6376276e-03
  6.2608548e-02
 -6.1524022e-02
  5.3212833e-02
  6.7880256e-03
  9.4659030e-02
  2.9499371e-02
 -5.1034201e-02
 -1.1610592e-01
  8.8453300e-02
  1.2730581e+00
  2.5471874e-02
 -3.6425978e-02
 -1.3350579e-02
 -2.9445928e-01
 -1.1951219e-01
  3.6135715e-02
  1.1638451e-01
 -4.6527863e-02
  4.7174495e-02
 -1.4090279e-01
 -1.3395922e+00
  7.3231047e-01
  3.4247434e-01
  6.7556411e-01
  6.8062282e-01
  9.4324434e-01
 -3.0330724e-01
  2.7822822e-01
  7.7097498e-02
 -9.2755717e-01
  2.7465364e-01
 -6.1759502e-01
  2.0137098e-01
 -4.8181884e-02
  7.0742965e-02
 -1.2988078e-02
 -1.3760899e+00
  8.5848993e-01
 -4.2137408e-01
  3.7609693e-01
  3.3883968e-01
 -4.2104159e-02
  2.5066394e-01
 -7.2494990e-01
  5.5592656e-01
 -8.8786677e-02
  2.0966581e-01
 -1.9819182e-01
  1.0341283e-01
  3.9141264e-02
 -6.4757419e-01
  3.7377787e-01
 -1.0127795e-01
 -6.3945967e-01
  2.0481658e-01
 -6.4369984e-02
  9.3163416e-02
  1.2199527e-01
  1.0501748e-02
  1.3072632e-01
 -2.3969328e-01
  2.5303584e-01
 -5.2048091e-02
 -3.4027910e-01
 -2.2363670e-01
 -2.8228083e-01
  2.9076647e-02
  2.9667627e-02
  6.8046255e-03
  9.4642007e-01
  6.3458286e-02
 -4.6199676e-01
 -3.4109592e-02
 -3.2065988e-02
  1.5967470e-01
  2.0841958e-01
 -5.9252195e-03
  1.3491395e-01
  2.1281246e-02
  2.9032588e-01
  4.8128843e-01
  3.0814724e-03
  3.4364101e-02
 -1.2440536e-02
  8.2568765e-02
 -3.3401948e-01
 -1.7667454e-02
  4.6479744e-01
 -6.0158715e-02
  5.7037689e-02
  4.0091762e-01
 -4.9120519e-02
  4.8094568e-01
  1.5335110e-02
  4.2076766e-02
  7.0827994e-03
  1.5979461e-01
  7.8354992e-02
  2.1863298e-02
  4.1544117e-02
 -6.5755762e-02
  3.0102834e-02
  5.9163295e-02
  4.7070511e-02
 -8.1930466e-02
 -9.3274117e-02
 -2.1446487e-01
 -1.5622089e+00
  9.2012525e-02
  3.7429512e-01
 -2.3067157e+00
 -2.7290390e+00
 -4.5976529e-01
  3.3153358e-01
  2.4319507e-01
  1.9264588e-02
 -7.0868659e-01
 -3.1474563e-01
 -2.4910991e-03
  2.3773696e+00
  4.3212694e-01
 -2.7985093e-01
 -1.1769512e-02
  3.7350556e-01
  2.6269406e-01
 -5.1718999e-02
 -4.2084754e-01
  2.2620279e-01
  6.9343559e-02
 -1.0744750e-01
  1.9710445e-01
 -8.0624960e-02
  8.5366642e-01
 -4.3582344e-01
  6.5296009e-02
  1.0587745e-01
  7.4788004e-02
  1.0035003e-01
 -1.5516628e+00
  5.5035963e-03
  2.1306723e-01
 -2.1565500e-01
 -1.3655797e+00
 -3.0630995e-02
  1.8378712e-01
 -5.1268208e-01
  1.0240204e-02
 -5.2387857e-01
 -1.3301199e-02
 -3.4431279e-02
 -1.5134324e-02
 -1.1370835e-01
  1.5693096e-02
  3.2687765e-01
  3.7591040e-02
  4.9197108e-02
 -1.8612531e-01
  4.0808153e-01
  2.4969287e-02
 -1.7452204e-01
 -1.3704787e-01
  2.9007992e-01
 -8.2386605e-02
 -2.8057027e-01
  2.8921914e-01
 -3.2612346e-02
  9.3062019e-01
 -1.5448785e-02
 -4.5857438e-01
  2.5728479e-01
  6.7953564e-02
 -3.0740136e-01
  1.7334413e-04
 -3.2785270e-01
  1.9867034e-01
  1.5130612e-02
  4.6128172e-01
 -3.5257753e-02
  7.1706913e-02
  3.3510663e-02
  5.7464052e-02
 -3.7824431e-01
  3.3029662e-03
 -3.4121826e-01
 -1.9373782e-01
  8.1366435e-02
  2.4588840e-02
  8.6701326e-02
  2.6767296e-01
 -1.1266816e-01
  1.4444935e-01
 -1.6085257e-01
 -5.9672910e-01
 -7.9987571e-03
 -9.1082357e-02
 -1.8726182e-01
  2.8679425e-02
 -1.0079117e-01
 -2.3923251e-01
  1.1919080e-01
  1.4352019e-02
  5.6103098e-01
 -1.1032730e-01
 -4.0660697e-01
  4.2613268e-01
  3.1267972e+00
  1.2664798e-01
  1.2015091e-01
  3.8950410e-01
  2.4603817e-01
 -2.1590859e-01
  1.7809525e-01
 -1.1969069e-01
  7.7008247e-01
 -7.4451125e-01
  1.7479062e-01
  1.1907328e-01
  1.4698026e-01
  2.3667750e-01
  1.0016137e-01
 -1.2578136e-01
  6.6773856e-01
 -1.5717450e-01
  1.2978196e-01
 -1.0746679e-01
 -1.8202060e-01
  1.7637458e-01
 -2.9074466e-01
  1.5512374e-01
 -1.0827313e-01
  7.9470980e-01
 -1.4768925e-01
  1.8366084e-01
  1.0506226e+00
 -1.4660713e-01
 -3.1433117e-01
  4.9181566e-01
  1.9340624e-01
 -2.8024784e-01
 -1.2336287e-01
 -1.2624502e-01
 -1.4424187e-01
  1.5293115e-01
 -1.4527640e-01
  1.0786669e-01
 -2.0541590e-01
  3.1103501e-01
  1.4454183e-01
  1.5173782e-01
  8.8082910e-01
 -3.2950824e-01
 -1.1178597e-01
 -1.5633625e-01
  6.0928881e-01
  1.1767950e-01
 -1.8696359e-01
  1.3253155e-01
  7.6023275e-01
 -1.5954405e-01
 -1.4491580e-01
  1.2059490e-01
 -1.8936534e-01
 -2.3030907e-01
  1.0492622e-01
  1.0330946e-01
  1.5131257e-01
  1.6134266e+00
  3.0587068e-01
 -1.1349715e-01
  1.0920773e-01
 -1.1060736e-01
  2.9223138e-01
 -1.2893215e-01
 -2.0312129e-01
  1.1953224e-01
 -1.6015978e+00
  3.3917314e-01
 -2.5328273e-01
  3.4853649e-01
  1.2563874e-01
  2.2095206e-01
  2.9844832e-01
 -1.2324241e-01
  1.2440308e-01
  1.0147419e-01
 -1.5156719e-01
  2.7798364e-01
 -1.1086252e-01
 -1.6388182e-01
  1.0333604e-01
  8.4701556e-01
  2.7979964e-01
  2.8900045e-01
 -1.4256791e+00
 -7.4309224e-01
  2.3738489e+00
 -2.1454471e-01
  1.1225430e-01
 -1.7601845e-01
 -1.1447836e-01
 -1.2194994e-01
  1.7492515e-01
  1.0261934e-01
 -1.2798284e-01
 -4.0896276e-01
  2.2619107e-01
 -1.1018052e-01
  1.1698314e-01
  4.2252249e-01
  1.9871739e-01
 -8.4961337e-01
  1.0506390e-01
 -2.4301478e-01
  1.0188680e-01
 -4.5256642e-01
  1.0532180e-01
 -1.0385328e-01
 -2.0236325e+00
  1.4784828e-01
  5.5498660e-01
 -8.2521164e-01
  2.2782066e-01
 -4.4947356e-01
  1.8591532e-01
 -1.3683477e-01
 -5.6226623e-01
 -1.8238355e-01
 -1.1118352e-01
  5.9512055e-01
 -6.5037322e-01
 -1.1806638e+00
 -1.9365448e-01
  9.1155553e-01
 -4.4096047e-01
  1.3960773e-01
  1.5935504e-01
  1.7047261e-01
 -1.1076939e-01
  1.0481467e+00
 -2.8826699e-01
  2.1790332e-01
  1.5413231e+00
  1.5775040e-01
 -2.5751236e-01
  6.9336849e-01
  1.0571379e-01
  1.2325853e-01
  6.2460274e-01
  1.4308813e-01
 -7.2773582e-01
  1.4851832e-01
 -3.1713763e-01
 -2.2585368e-01
 -1.5510100e-01
  3.0029345e-01
  6.2226385e-01
  1.0345838e+00
  1.2278563e-01
 -3.4423416e+00
 -1.2147515e-01
  3.5366294e-01
 -1.0241916e+00
  1.9600333e-01
  1.0259964e-01
  5.3350788e-01
  6.3651234e-01
 -1.8760735e+00
  2.2599146e-01
  1.0090461e+00
  2.4499667e-01
 -1.7812185e+00
  3.2055488e-01
 -1.6333765e-01
  6.2578803e-01
 -1.3970640e+00
 -8.4931064e-01
 -2.8243348e-01
  1.8681434e-01
  2.6304507e-01
 -2.5193590e-01
  1.3383538e-01
  1.3452874e-01
 -1.7915402e-01
 -1.9123104e-01
 -1.0310101e-01
  9.1367614e-01
  1.3544801e-01
  1.3393663e-01
  8.7254840e-01
  6.1008108e-01
 -1.3406283e-01
  7.3110652e-01
 -9.4883955e-01
 -1.3455656e-01
 -1.8454297e+00
  2.3425284e-01
  1.8773718e-01
 -4.1669911e-01
 -9.1882026e-01
  1.9793473e-01
 -9.2781276e-01
  1.5109482e+00
 -1.0269950e-01
 -6.7508894e-01
  7.2290266e-01
  6.5131539e-01
 -2.1846192e-01
 -6.2506133e-01
  1.4568193e-01
  2.0251936e-01
 -1.0595256e-01
  7.1364385e-01
  9.2263502e-01
  1.2917489e-01
 -1.8361208e-01
 -1.0570657e-01
 -1.4505523e-01
 -3.4744781e-01
  6.6359591e-01
 -2.0705853e-01
 -3.1415132e-01
 -1.3572547e-01
  3.9954525e-01
  1.7288975e-01
 -5.1649135e-01
 -2.3626539e-01
  2.6927564e-01
 -2.9905787e-01
 -2.8156056e+00
  1.3282193e-01
 -1.4559422e-01
 -1.1154740e-01
 -1.0893753e-01
 -8.4157497e-01
 -2.3196113e-01
 -2.2424039e-01
 -4.5483637e-01
  1.2835714e-01
 -1.0304952e+00
 -1.3910102e+00
 -1.0099426e-01
  1.7422433e-01
 -6.9704467e-01
 -3.1073180e-01
 -1.0314637e-01
 -1.0886617e+00
  2.4716970e-01
  3.4662759e-01
 -1.9929001e-01
 -1.2415358e-01
 -6.7999911e-01
 -1.3578297e+00
 -1.8249234e+00
  1.1769054e-01
 -1.5120826e+00
  6.2749130e-01
  1.1417922e-01
  6.9269598e-01
 -1.3577242e-01
 -1.7307016e-01
 -1.0423826e-01
 -2.2412923e-01
 -1.5146120e-01
 -1.0463331e-01
 -9.1852289e-01
 -5.6109917e-01
  5.3242302e-01
 -1.2747592e-01
 -1.7905906e-01
 -3.7769982e-01
 -1.6764030e-01
 -2.2609770e-01
  1.7601298e-01
  1.3074404e-01
  1.2727794e-01
 -1.0470059e+00
 -3.9229542e-01
 -4.9074164e-01
 -2.4563983e-01
  7.7611166e-01
 -1.3540652e-01
  1.2938377e+00
  2.3932767e-01
  1.0034794e-01
 -1.7188221e-01
 -1.3500498e-01
 -2.2750849e-01
 -1.5834722e-01
 -1.5447660e-01
  1.3687040e-01
 -1.2459996e+00
 -3.6518753e-01
 -9.7529292e-01
  8.0101436e-01
  1.6310374e-01
 -1.1073831e-01
 -7.0874703e-01
 -6.2756187e-01
  1.7325872e-01
  2.0202780e-01
 -8.1382096e-01
 -3.5992807e-01
 -1.8283707e-01
 -4.8191094e-01
  2.0296934e-01
 -2.6191062e-01
 -1.0066909e-01
 -3.2835528e-01
  1.6338857e-01
  4.1157019e-01
  2.2051316e-01
  5.0670397e-01
 -1.0437562e-01
 -1.3522683e-01
 -5.5852759e-01
  1.3786601e+00
 -1.0171892e-01
 -3.0985066e-01
 -2.3140305e-01
  1.0276717e-01
  1.7042595e+00
 -2.5939032e-01
  1.0990168e-01
 -1.9846274e-01
  9.2922235e-01
 -1.0274706e-01
 -1.3698592e+00
 -1.0205934e-01
 -8.7326157e-01
  6.2723780e-01
 -1.2111213e-01
 -2.3378620e-01
  1.0339794e-01
  1.0771680e-01
  3.0025741e-01
  1.9105315e-01
  1.7495161e-01
  1.3913292e-01
 -1.3306981e+00
 -2.7352080e-01
 -1.2162481e-01
 -2.4376315e-01
  1.0860796e-01
  1.2689032e-01
 -1.2692550e-01
  1.4594808e-01
  2.4133250e-01
  5.9482884e-01
 -1.4737542e-01
  1.0094806e-01
 -1.0730430e-01
 -1.0715986e-01
  1.2657331e-01
 -2.2794247e-01
  3.9104077e-01
 -2.5102392e-01
  1.0650196e+00
  1.0333794e-01
 -2.3239669e-01
 -1.4671181e-01
  2.1044333e+00
  1.2450177e-01
  6.0578567e-01
  1.0608056e+00
  1.0551650e-01
 -1.7409140e-01
  2.5468481e-01
 -1.0818837e-01
  8.6231416e-01
  1.4212212e-01
 -1.2417971e-01
 -5.6858647e-01
  1.0122516e-01
  6.2083858e-01
 -1.3135009e-01
 -1.7152983e-01
 -5.9148353e-01
 -3.1135783e-01
 -1.1145338e+00
  1.0971854e-01
 -2.4682030e-01
 -1.4541317e+00
 -1.8172634e-01
 -2.8160930e-01
  1.2035737e-01
  2.4278155e-01
  1.1504275e-01
 -1.2461696e-01
  1.1131813e-01
  2.5841382e-01
 -1.7183396e-01
  4.0069363e-01
 -2.1420065e-01
  1.4457189e-01
 -1.2697041e-01
 -3.9866215e-01
  1.1419699e-01
  3.8835898e-01
  3.7815160e-01
 -1.7805198e-01
 -1.4208817e-01
  6.5955311e-01
  1.0950699e-01
 -1.7044069e-01
 -6.8828011e-01
  7.2057319e-01
  1.2924781e-01
  6.3547403e-01
 -3.3721516e-01
  1.1131911e+00
 -6.7251706e-01
 -1.0321926e-01
  1.0464498e-01
 -6.5255475e-01
  9.5033914e-01
  1.0477093e-01
  5.5151248e-01
  1.0041137e+00
  5.1706564e-01
  1.1466910e+00
  2.3658469e-01
  1.1008947e-01
 -1.1562493e-01
  1.0855927e-01
 -2.0607063e-01
  1.2204561e-01
  4.2167512e-01
  1.1553068e-01
 -2.6264238e-01
 -6.2765837e-01
 -2.0270012e-01
  5.1926255e-01
 -5.1888174e-01
  1.4558282e-01
  1.8137453e-01
 -1.0370252e-01
 -1.0925746e-01
 -1.1493626e-01
 -1.0324282e-01
  1.3412762e-01
  8.3164442e-01
 -2.4683702e-01
  1.4419524e-01
 -4.9816820e-01
  1.3802128e-01
 -4.4244221e-01
 -9.1300321e-01
  7.4137062e-01
  2.6589727e-01
 -5.5372775e-01
  1.9066644e-01
  1.0425334e-01
 -4.2746967e-01
  7.3220301e-01
  6.7335600e-01
 -6.4782637e-01
  1.5672712e-01
  1.2043323e-01
 -1.0085504e-01
 -2.3253044e-01
  2.0125496e-01
 -2.4203047e-01
 -1.9497067e-01
 -1.2122528e-01
  6.6984469e-01
  4.6639305e-01
  1.2574860e-01
 -1.1690246e-01
  4.3331239e-01
 -1.2098381e-01
 -3.1282553e-01
 -1.1708971e+00
 -1.8017483e-01
 -2.2312388e+00
  6.7986619e-01
 -1.1355120e-01
 -4.3307739e-01
  2.1157438e-01
 -1.9284075e-01
  4.3933034e-01
  3.5541096e-01
  7.2858733e-01
 -9.1592503e-01
  2.4469370e-01
  1.0956463e-01
 -8.0511755e-01
  3.1396273e-01
  1.6434954e-01
  2.3395124e-01
  6.6419256e-01
  3.9048120e-01
  7.9044563e-01
  1.6163723e-01
  1.9820508e-01
  1.2666298e-01
 -2.6229870e+00
  2.3554215e-01
  6.1504221e-01
 -8.0732769e-01
 -3.3235916e-01
 -6.2762821e-01
  1.8190069e-01
 -1.1886562e-01
 -1.0031128e-01
  5.1548105e-01
  1.4037524e-01
  1.0219836e-01
 -1.2215441e-01
 -1.0571837e-01
 -3.2851094e-01
  3.4211910e-01
  2.2323626e-01
  2.9391360e-01
 -1.5432505e-01
  2.3346093e-01
 -8.3062363e-01
  4.8501641e-01
 -1.6257040e-01
 -3.2298452e-01
 -1.0985345e-01
 -1.3340590e+00
  4.6486148e-01
 -2.4238402e-01
  1.4079475e-01
  3.3167261e-01
  1.1182605e-01
 -3.0394554e-01
 -2.7632682e+00
  1.1790180e-01
 -2.1890830e-01
  1.5535416e-01
 -9.0391332e-01
 -1.3041504e-01
  4.2763892e-01
  4.1009110e-01
 -3.2769433e-01
  1.1538655e-01
  2.6356056e-01
  1.6904542e-01
 -2.1912506e-01
  4.3504664e-01
  1.4741293e-01
  2.0931098e-01
 -1.4954129e-01
 -7.9329437e-01
  1.4013203e+00
 -2.7971366e-01
  1.2073598e-01
  3.3145070e-01
 -1.0135498e-01
 -1.3220510e-01
 -1.4278056e-01
 -6.6981548e-01
  4.2914766e-01
 -1.0231817e+00
 -1.5372129e-01
 -1.1053363e-01
  9.3562078e-01
  7.9603529e-01
  2.2868952e-01
  4.1863686e-01
 -1.6516295e-01
 -5.8704311e-01
 -1.1093190e-01
  1.1913892e-01
  1.0716071e-01
  3.2252634e-01
 -4.0870950e-01
  1.9252199e-01
 -3.1876445e-01
  1.8651846e-01
 -2.2468510e-01
 -5.3254569e-01
  2.2134960e-01
  1.0585495e-01
 -1.6149548e-01
 -1.3459884e-01
 -3.6331731e-01
 -9.4561988e-01
 -5.9945410e-01
 -3.1489611e-01
 -1.3911395e+00
  3.5166934e-01
  1.4489666e-01
 -1.8655764e-01
 -1.1794449e-01
 -1.3770953e-01
  1.2139577e-01
  1.0075267e-01
  1.1245947e-01
 -1.0605913e+00
  1.4054763e-01
 -2.0406896e-01
 -1.3339865e-01
  3.1307995e-01
 -1.3997161e-01
  7.1821195e-01
 -6.9336885e-01
 -5.6199300e-01
 -2.5864211e-01
  4.2316577e-01
  1.4371815e-01
 -2.5218010e-01
  1.0132331e-01
 -1.9805470e-01
 -6.3057178e-01
  1.4889196e+00
 -1.0811365e-01
  9.9330944e-01
 -1.0895730e-01
 -1.2196840e-01
 -1.1813238e-01
 -1.7377931e-01
  1.3056995e-01
  4.3971589e-01
 -3.9993945e-01
 -1.1809134e-01
  1.7100808e-01
  1.0936692e-01
  1.2946811e-01
 -1.5518346e-01
  1.4772823e-01
 -2.7076051e-01
  1.5567926e-01
 -3.8647789e-01
 -1.1447319e-01
 -2.6501647e-01
  1.2895668e-01
  1.7943174e-01
  1.0760175e-01
  1.3658369e-01
 -1.0124829e-01
  1.3392724e-01
 -1.6304950e+00
 -4.4917038e-01
  4.6106496e-01
  1.2780043e-01
  1.6212495e-01
 -3.3494362e-01
  1.3030744e-01
 -1.3064155e-01
 -2.0865059e-01
 -8.6673141e-01
 -1.3635920e-01
 -1.0546339e-01
  2.5452748e-01
  1.5429005e-01
 -1.6249339e-01
 -1.0930737e-01
  1.2873465e-01
  2.1262378e-01
  1.5175480e-01
  2.8025076e-01
 -1.1034552e+00
 -1.4956170e-01
 -1.0675944e-01
 -2.2671610e-01
 -1.4775071e+00
  7.1540892e-01
  6.1240351e-01
  2.6605558e-01
  1.2855078e+00
  5.1859093e-01
  1.2484788e-01
 -1.1125914e-01
 -1.5006500e-01
 -1.6840431e-01
  1.6150239e-01
 -1.2151562e-01
 -1.2105635e-01
  3.6969975e-01
  4.5627400e-01
 -1.9692254e-01
 -1.5187970e-01
 -5.2486998e-01
 -1.7287251e-01
  1.6991073e-01
  6.8481475e-01
 -8.4832186e-01
 -2.7601349e-01
  2.5866911e+00
  2.0233825e-01
 -6.5500081e-01
 -3.2257029e-01
  1.0536200e+00
 -1.6460648e-01
 -3.5897329e-01
  1.3401521e+00
  1.0634937e+00
 -1.5595322e+00
 -1.4781485e-01
 -1.9503006e-01
 -1.6013753e-01
  1.5671387e-01
 -1.2877323e-01
 -2.6357353e-01
  1.9612945e+00
  2.0553565e+00
 -3.2897601e-01
 -3.0580482e-01
 -1.0931350e-01
 -5.6177616e-01
  5.9520209e-01
  1.3311186e-01
 -1.5386167e+00
 -1.6751763e+00
 -1.1262609e+00
  1.6555655e+00
 -8.2383686e-01
 -1.4408794e-01
 -7.4845666e-01
  1.5952298e-01
 -1.2123677e-01
 -1.0745399e-01
  1.6495718e+00
  1.0422894e-01
 -3.4252682e-01
 -4.6156192e-01
 -1.6801998e-01
 -4.2276153e-01
 -1.4657611e-01
  1.2001634e-01
  8.3579552e-01
  2.1657071e+00
  1.2576259e+00
 -6.3394016e-01
 -5.7386190e-01
 -1.5214930e-01
  1.0504837e-01
 -2.6103172e-01
 -2.2178954e-01
  2.7659583e-01
  1.7420694e+00
  1.2745796e-01
  1.5583307e-01
 -2.1863496e+00
 -1.0893559e-01
  4.2444602e-01
 -1.1507823e-01
 -1.0432407e-01
 -1.2268949e+00
 -4.3069729e-01
  4.5028400e-01
  6.2256426e-01
 -2.1177945e-01
 -2.0446452e-01
 -1.2231078e+00
  1.2598479e-01
 -1.1851335e-01
  5.5965412e-01
  1.7626128e-01
  4.5631623e-01
  4.4945744e-01
  1.8928599e-01
 -1.3437599e-01
 -1.0930338e-01
 -2.5998902e-01
 -1.5404035e-01
 -2.1332079e-01
  1.4212069e-01
  1.9610642e+00
 -1.1039833e+00
 -1.2028962e-01
  1.4257561e-01
 -1.1970259e-01
  1.6635182e-01
  1.5194750e-01
  3.5048261e-01
 -1.1108454e-01
  2.1820884e+00
  1.2219473e+00
 -2.3751330e-01
  1.0380511e-01
 -1.7432874e-01
 -1.7138501e-01
  1.0160737e-01
  1.3695019e+00
  1.5203056e-01
 -3.4169903e-01
 -6.8083400e-01
 -1.4315383e-01
  1.0246569e-01
 -1.1364596e-01
  7.6664788e-01
  1.4131626e-01
 -1.2547555e+00
  1.1335630e+00
 -1.0308845e-01
  1.6450253e+00
  1.0637929e-01
  2.2662365e-01
  1.5231760e-01
  1.0028279e-01
  1.0497678e-01
  2.2955579e-01
  2.0742771e-01
 -1.8396419e-01
  2.3774261e+00
  1.4701523e-01
 -2.0769864e-01
 -1.3464254e-01
 -1.3695295e-01
  1.4449005e-01
  1.8238852e+00
 -4.6549049e-01
 -5.9115487e-01
 -1.4441552e+00
 -1.1105397e-01
 -1.4884716e-01
 -1.2903811e-01
 -1.4958523e-01
  1.2790294e-01
  3.4310123e-01
 -6.2403393e-01
  5.4995579e-01
  5.6209928e-01
 -1.1180507e-01
 -1.6383906e-01
 -4.3777281e-01
 -6.8405843e-01
 -1.4385940e-01
 -5.8295822e-01
 -3.4893081e-01
 -1.0663325e-01
 -1.4489356e-01
  2.1423548e-01
 -1.2153874e-01
 -1.4089757e-01
 -1.4444008e-01
 -1.0500937e-01
 -1.5756834e-01
 -1.2191488e-01
  7.2187865e-01
 -1.1229711e+00
  4.2556289e-01
 -6.5425926e-01
 -1.2863983e-01
 -2.5281441e-01
  1.5842691e-01
 -1.5242532e-01
 -1.7490165e+00
  1.0924239e+00
  2.8754556e+00
 -3.0513737e-01
 -2.4646908e-01
 -1.4743195e-01
 -2.9613230e-01
 -2.4628741e-01
  1.6566178e-01
  8.8282931e-01
  4.7886252e-01
 -1.7574720e+00
  1.1509297e-01
 -1.3897857e-01
 -1.2450652e-01
 -1.3172211e-01
  2.2102150e-01
 -1.4755352e-01
  1.7322041e-01
  9.5352596e-01
  2.1191170e+00
 -1.4052552e-01
 -1.4361288e-01
 -2.0821658e-01
 -7.0168769e-01
 -2.5256518e-01
 -3.4295881e-01
  1.0465083e-01
  5.3129917e-01
  1.2460469e-01
 -2.0183033e-01
  1.3113604e-01
 -3.9026138e-01
 -1.1581787e-01
 -1.0782526e-01
 -7.6917124e-01
 -3.5067242e-01
  1.3412582e+00
 -1.9004023e+00
  1.8946782e-01
 -1.7075917e-01
 -2.6252067e-01
 -1.8122502e-01
  2.0459118e-01
 -4.3666765e-01
  2.1495739e-01
  8.8658553e-01
  1.1706487e-01
 -1.8577826e-01
 -6.0319549e-01
  1.7922080e-01
  1.7681816e-01
 -1.5217645e-01
 -6.1951399e-01
  2.5312319e-01
  7.2063893e-01
 -1.0783548e-01
 -1.3163863e-01
  1.4811048e-01
  2.3792818e-01
 -4.0512913e-01
  1.3099718e-01
 -6.7825425e-01
  6.1614555e-01
  1.1717977e-01
  1.0221858e-01
 -1.2063003e-01
  1.3111259e-01
  2.2372700e-01
  1.8536477e-01
 -1.1824127e-01
 -1.8512775e-01
 -1.1937141e-01
 -1.3354412e-01
 -4.2647421e-01
 -1.0620595e-01
  1.3173580e-01
  1.6199578e-01
 -5.6971335e-01
 -1.1848730e-01
  3.1427994e-01
  1.5701312e-01
 -1.0343177e-01
  9.0154892e-01
 -2.3679799e-01
 -1.6702598e-01
  1.7213950e-01
  4.9284518e-01
 -1.9302556e-01
 -2.1858783e-01
 -1.3463899e-01
  1.3339175e-01
 -2.2028434e+00
 -1.3472547e-01
  1.5382022e-01
  2.1665743e-01
 -4.9191904e-01
 -1.1759390e-01
  1.2691285e-01
 -2.8361133e-01
 -1.3884652e-01
 -4.5733911e-01
 -1.7224753e-01
  1.3440752e-01
  1.2537707e-01
  1.7332006e-01
  2.1756810e-01
  4.4393367e-01
  1.4257935e-01
  4.4964293e-01
  1.3217015e+00
 -3.8625988e-01
  1.8586338e-01
 -1.7629889e-01
 -1.1817626e-01
  1.6811988e-01
 -1.2330408e+00
 -8.3989495e-01
 -2.7275789e+00
 -1.1988667e+00
 -1.7530823e-01
 -1.1049753e-01
  1.3736957e-01
 -1.1945917e-01
  1.2620838e-01
  7.8900021e-01
 -1.3226298e+00
 -4.3367362e-01
  1.7240721e-01
 -1.0373537e-01
 -1.0650091e-01
  1.2365773e-01
  1.1979067e-01
 -1.7558503e-01
  6.1999512e-01
 -9.9226636e-01
  4.1589299e-01
  1.4443688e+00
  1.3896039e-01
  1.0889511e-01
 -9.5142943e-01
 -2.9437166e-01
 -1.2861452e-01
 -1.0525397e-01
  1.4049976e+00
  6.7005032e-01
  1.0141782e-01
  2.0334128e-01
  1.4346477e-01
 -1.5427710e+00
 -1.2793039e-01
  1.4138186e-01
  1.2129805e-01
  4.9944133e-01
  1.4993057e+00
 -1.0227289e-01
  1.0113340e-01
 -2.3991948e-01
  1.0888664e+00
 -3.1559727e-01
  1.3250448e-01
  3.3080190e-01
 -2.0682342e-01
 -4.8166576e-01
 -1.0741308e+00
  6.2386185e-01
 -1.5962200e-01
  1.4696902e-01
 -3.5282579e-01
 -1.0447983e-01
  5.7659942e-01
 -6.2138599e-01
  2.7426388e+00
 -2.7467494e+00
  6.0301238e-01
 -2.0896834e-01
 -1.7093959e+00
  2.4461642e-01
 -1.0021397e-01
 -2.8269920e-01
 -1.7855573e-01
 -1.0415746e-01
  1.0244366e+00
 -1.2536341e-01
 -1.0931763e-01
  7.5625515e-01
 -1.2941611e-01
 -1.4428528e-01
  1.0067390e+00
  6.7522919e-01
  1.6153252e+00
  6.6139305e-01
  4.0638098e-01
 -1.5525839e-01
 -3.7851608e-01
 -1.5391916e-01
  1.4485028e-01
  1.3254383e+00
 -1.1164346e-01
  1.0192130e+00
 -1.2379383e+00
  7.4017674e-01
 -1.3630182e-01
 -1.4938291e+00
 -1.1744764e-01
 -1.5099466e-01
  1.0188455e-01
 -7.7536088e-01
  5.6407148e-01
 -2.0172083e+00
  4.7736609e-01
  2.2892824e-01
 -4.4589555e-01
 -2.8590360e-01
  1.3562725e-01
  6.6144198e-01
 -4.5032907e-01
 -4.4799355e-01
 -2.0486337e-01
  3.2137346e-01
  1.4831936e-01
 -9.1760272e-01
 -1.9864607e-01
 -2.2158459e-01
  9.6971160e-01
  1.7169734e+00
 -1.5110537e-01
  5.4240376e-01
  1.1887171e-01
 -1.6181703e-01
 -1.1219398e-01
  2.0556301e-01
  1.8646410e-01
  1.6751115e+00
 -1.0110106e-01
 -1.3108085e-01
  3.6108497e-01
 -3.2004952e-01
  1.9193146e-01
 -1.2739529e-01
  2.5252628e-01
 -1.9759166e-01
  9.7992283e-01
  5.1523304e-01
  2.2125335e+00
 -1.8040973e+00
  4.5232716e-01
 -1.4122964e-01
 -5.9858865e-01
  1.0153177e-01
 -1.2911798e-01
  1.6513066e+00
 -5.5789137e-01
  2.4114344e-01
  1.7990302e+00
 -1.2158060e-01
  1.6232377e-01
  1.9426695e-01
  1.6547979e-01
 -1.5843841e-01
 -3.4100017e-01
 -2.0112216e-01
 -1.2148929e-01
  1.3394505e+00
  1.0642958e-01
 -4.4820338e-01
 -4.9095139e-01
  3.1132033e-01
 -1.3338000e-01
 -5.1867872e-01
 -5.2374583e-01
  1.2691045e+00
 -4.7140259e-01
  1.0190235e-01
  3.2855359e-01
  1.1054605e-01
  1.0536950e-01
 -1.1050276e-01
  2.0804412e+00
 -3.3027542e-01
  9.3828964e-01
 -1.0135981e-01
  1.2010008e-01
  1.1958176e-01
  3.3013028e-01
 -3.6429319e-01
 -1.6205336e-01
 -8.7848502e-01
 -1.0161518e-01
  1.2410860e-01
  6.3814658e-01
  1.5510157e-01
 -4.2810512e-01
  1.3920143e-01
 -2.4999735e-01
 -1.3048759e-01
 -1.0882922e+00
  1.2291642e-01
  8.1017035e-01
  3.2858834e-01
 -2.8971961e-01
 -5.7737517e-01
  1.9067712e-01
 -1.3538280e-01
 -3.6808214e-01
 -1.1020346e-01
 -2.1669705e+00
  9.4350147e-01
 -1.5760983e+00
 -1.6253039e-01
 -1.7028013e-01
 -1.1785419e-01
 -2.8505436e-01
 -1.5560234e-01
 -5.4151946e-01
 -1.4396311e-01
  2.9804778e+00
  1.3990492e-01
  3.4820294e-01
 -1.1795118e-01
  1.4575049e-01
  1.4485264e-01
  1.2799573e-01
  2.9189092e-01
  1.8048007e+00
 -1.8729112e+00
  1.2533894e+00
 -9.2979586e-01
 -9.6033579e-01
 -4.5198637e-01
  1.3145125e+00
 -1.3506897e-01
 -9.0447319e-01
  2.4397728e-01
 -1.1010968e-01
  6.3834393e-01
 -4.3776435e-01
 -1.3271138e-01
 -1.1984312e-01
  2.3763645e-01
  1.3643637e-01
 -7.9660648e-01
 -3.6633068e-01
  2.0514355e+00
 -8.0002630e-01
  1.0984564e-01
  1.0436708e-01
  1.1198438e-01
  1.5678725e-01
  1.8127620e-01
 -1.1601597e-01
 -4.1451642e-01
 -1.0410165e+00
 -1.3460586e+00
 -1.8746348e-01
 -8.8988262e-01
  1.7809474e-01
  1.1299127e-01
 -1.7075667e-01
 -1.5304177e-01
  1.0275754e-01
 -7.5925690e-01
  1.0647105e-01
 -3.0363849e-01
  1.2829834e-01
 -1.2460710e-01
  2.4038333e-01
  1.6706219e-01
  9.7366852e-01
  1.1931140e-01
  3.0996916e+00
 -1.5754575e-01
 -1.7965025e-01
  3.2269317e-01
  1.1514536e-01
  1.8622309e-01
  1.9151476e-01
 -2.4138406e-01
  3.2089788e-01
  2.2892506e+00
 -1.1382830e-01
  1.9143832e+00
  6.2617952e-01
  3.9863595e-01
 -1.3803311e-01
 -1.4030547e-01
 -5.0515407e-01
 -5.5448300e-01
 -1.0197644e-01
 -9.3884379e-01
  1.2940452e-01
 -1.5895857e-01
  1.2700970e-01
  2.6295570e-01
 -1.2513945e-01
 -2.9690787e-01
 -3.5936877e-01
  8.7194359e-01
  2.6200273e+00
 -1.1009650e-01
  1.0919363e-01
  1.2806642e-01
 -3.7102547e-01
  2.3394614e-01
  1.7953679e-01
  9.9333817e-01
  3.3651486e-01
  4.5811009e-01
  6.3725841e-01
  3.9389670e-01
 -1.0713047e-01
  1.0392460e+00
  1.2691479e+00
  3.4424597e-01
 -3.2719588e-01
  1.0126617e+00
  2.0114410e+00
  2.5268131e-01
  2.9445207e-01
  1.9125015e-01
  5.0223196e-01
  1.0347240e-01
  1.1140212e-01
 -1.0789714e+00
  8.3626789e-01
  1.2868868e+00
 -1.6140041e-01
  1.4527439e-01
 -2.0819995e-01
  8.0657852e-01
  4.9204579e-01
 -3.7903219e-01
  1.1285160e+00
  3.7413985e-01
 -1.5481779e-01
  1.1276575e-01
  1.1487418e-01
  3.1975800e-01
  2.4104006e+00
 -1.6965638e-01
 -2.4106884e-01
 -5.5568969e-01
 -1.0469325e-01
 -4.1376048e-01
 -1.1063822e-01
  2.2328024e-01
  2.5961274e-01
  1.0234513e-01
  2.0850375e-01
 -1.9082613e+00
 -2.7152526e+00
 -3.5910675e-01
  1.8121698e+00
 -1.5029496e-01
  1.9747871e-01
  1.0990281e-01
 -3.4725711e-01
 -1.0071509e-01
 -2.8755772e-01
 -1.7462122e+00
 -1.8693104e-01
  1.4817405e+00
  4.9243338e-02
  4.9243338e-02
  4.9243338e-02
  4.9243338e-02
  4.9243338e-02
  4.9243338e-02
  4.9243338e-02
  4.9243338e-02
  4.9243338e-02
  2.1685462e-01
  2.1685462e-01
  2.1685462e-01
  2.1685462e-01
  2.1685462e-01
  2.1685462e-01
  2.1685462e-01
  1.1631057e-01
  1.1631057e-01
  1.1631057e-01
  1.1631057e-01
  1.1631057e-01
  1.1631057e-01
  1.1631057e-01
  4.0977366e-02
  4.0977366e-02
  4.0977366e-02
  4.0977366e-02
  4.0977366e-02
  4.0977366e-02
  4.0977366e-02
  2.8021442e-02
  2.8021442e-02
  2.8021442e-02
  2.8021442e-02
  2.8021442e-02
  2.8021442e-02
  2.8021442e-02
  1.0732266e-01
  1.0732266e-01
  1.0732266e-01
  1.0732266e-01
  1.0732266e-01
  1.0732266e-01
  1.0732266e-01
